#ifndef WEIGHTS_H
#define WEIGHTS_H

#include <stdint.h>

// Weights: int8 per-channel quantized
// Biases:  int32, scale = input_scale * w_scale[oc]
// Inference: acc * (input_scale * w_scale[oc]) / output_scale

static const float input_scale = 7.87401575e-03f;
static const float conv1_out_scale = 2.41514929e-02f;
static const float conv2_out_scale = 5.93464673e-02f;
static const float fc1_out_scale = 1.43769622e-01f;
static const float fc2_out_scale = 6.31146282e-02f;

static const float conv1_weight_scale[4] = {5.83034754e-03f, 4.94427793e-03f, 4.79994575e-03f, 4.74963756e-03f};
static const float conv2_weight_scale[8] = {4.02396545e-03f, 5.06758085e-03f, 2.88225315e-03f, 3.12035717e-03f, 3.60095594e-03f, 3.97330616e-03f, 3.41313868e-03f, 4.14148998e-03f};
static const float fc1_weight_scale[16] = {2.67050485e-03f, 2.46221828e-03f, 4.42783668e-04f, 6.32503594e-04f, 8.36762425e-04f, 5.05137257e-04f, 2.60968250e-03f, 4.44128760e-04f, 4.55645029e-04f, 2.77423533e-03f, 4.43275203e-04f, 4.28516511e-03f, 2.53007328e-03f, 3.21461516e-03f, 4.62159631e-04f, 2.55896850e-03f};
static const float fc2_weight_scale[10] = {4.26510209e-03f, 3.64300562e-03f, 2.96798931e-03f, 2.80615827e-03f, 3.49182962e-03f, 2.06098543e-03f, 2.62959534e-03f, 4.10948275e-03f, 2.68491684e-03f, 2.55369884e-03f};

// shape: (4, 1, 3, 3)
static const int8_t conv1_weight[36] = {
    -8, 40, 127, 11, 108, 119, -82, 22, 27, 73, 114, -88, 17, 94, -103, 113,
    127, 9, 31, -88, -127, 113, 109, 75, 46, 60, 121, 50, 35, 126, -101, -72,
    77, -22, -123, -127,
};

// shape: (8, 4, 3, 3)
static const int8_t conv2_weight[288] = {
    10, 3, 85, -79, 94, 63, -21, 81, -4, -65, -76, 52, -102, -40, 85, -25,
    73, 96, -18, -13, 22, -50, 34, -17, 8, -9, -32, 20, -23, -57, 5, -108,
    -127, -86, -84, -97, -56, 38, 19, -99, -2, 67, -98, -22, 39, -58, -25, 65,
    -55, -41, 50, -73, -60, 23, -28, -38, 10, -84, -58, 50, -18, -61, 19, 34,
    36, 57, 52, 78, 68, 44, 47, 127, 35, 76, 8, 31, 43, -50, 64, -14,
    -41, -32, 72, 84, -88, 127, 82, 63, 124, -29, -7, 35, -81, -117, 53, 4,
    -18, 75, 33, -44, -97, -45, -110, -99, -109, -93, -57, 10, 36, 42, 1, -24,
    49, 15, -80, -49, 47, -3, 127, 9, -94, 77, 18, 3, 43, 40, 1, 22,
    -34, -80, 20, 82, -10, 38, 114, 26, -84, -5, 19, -33, -37, 10, 72, -16,
    75, 16, -10, -114, -55, -81, 39, 20, 54, 0, -95, -69, -95, 20, 22, 43,
    42, 54, -1, -47, -45, -16, -33, -36, 124, 127, 93, -16, 53, -46, 47, -12,
    -13, -72, -6, 23, -32, -39, 41, 53, -53, -127, 76, 48, 4, 3, -64, -88,
    -4, 31, -62, -56, 74, 90, -17, -75, -112, 125, 47, -91, -45, 78, 46, 1,
    76, 124, 40, 41, 105, 96, -4, -20, 95, 14, -90, 117, -62, -61, 67, -79,
    11, 20, 127, -82, 70, 53, -88, 71, 59, -1, -42, -6, -122, -43, -25, -46,
    -3, 12, 26, -82, -106, 20, -87, -121, -36, 31, 7, 34, -33, -75, -69, 63,
    54, 57, 49, 49, 57, -27, -30, -32, 59, 23, 26, 31, -43, -4, -17, -35,
    -36, 127, 62, 49, 35, 17, 76, -44, -31, -61, -17, -27, 33, 87, 84, 59,
};

// shape: (16, 392)
static const int8_t fc1_weight[6272] = {
    23, -27, 44, 55, 49, 54, 25, 28, 41, -4, 63, 36, 26, 44, -53, -20,
    13, 28, -80, -79, -63, -45, -9, 30, -28, -87, 26, -21, 8, -11, -9, 14,
    21, -6, 29, 18, 5, -12, 25, -4, -33, 7, 29, -12, -20, -28, -57, -15,
    14, 8, -15, 23, 0, 47, -16, 9, 29, 33, 5, 13, 23, -50, -7, 15,
    8, 21, -39, -31, -37, -3, 10, -23, 62, 111, 65, 58, 24, 48, -10, 29,
    104, 127, 36, 24, 19, 4, -11, -23, -70, 5, 2, 10, 7, 31, -18, -33,
    -5, 11, 14, 8, 30, 53, 36, 53, 19, -24, 44, -3, 25, 40, -1, 41,
    -13, 10, -12, 38, -13, -54, -29, -78, 0, -5, 27, 4, -2, -5, -72, -2,
    -6, 36, -7, 21, 0, -30, -5, -35, 30, 30, 0, 36, 9, 3, 15, -45,
    -31, 11, -9, 42, 5, 6, 7, 44, 24, 48, 14, 13, -28, 11, 11, -17,
    27, -92, -1, 51, 65, -26, -10, 41, 4, -3, 21, 36, -18, -7, -31, 25,
    3, -6, 26, -24, -10, -23, -8, 11, 10, 43, -30, -25, 36, -9, 26, -11,
    -14, -13, -18, 19, -3, -6, -15, 8, 26, 17, 11, -17, -15, -58, 21, 34,
    61, 20, -39, -46, -49, 4, -16, 23, 17, 0, -36, -90, -29, -66, -59, -25,
    44, 51, 42, -27, -22, -55, -2, 10, 32, 3, -43, -53, -57, 15, 17, 20,
    -24, 23, 31, 4, 20, 15, 20, -27, -23, -16, 33, 16, 6, 11, -64, -56,
    -22, 26, 35, -1, -62, 5, 27, -9, 42, 22, 18, -30, -70, 14, -8, 22,
    -10, -1, 48, 47, 2, 15, -9, 17, 14, 55, 26, -10, -88, 1, 5, 8,
    8, 13, -8, -2, -17, -3, 8, 40, -6, 54, 34, 30, 26, -25, -8, 21,
    15, -18, -8, 6, 7, 8, 39, -1, 6, -34, 6, 16, -67, -30, 8, -8,
    -38, 32, 6, 21, 19, 23, 29, 8, 10, -1, 11, 31, 11, -1, 49, 15,
    -10, 39, 47, -25, -1, 3, -32, 1, 6, -37, -52, -9, 16, 18, 23, 0,
    -44, -38, 30, 19, 10, -49, -60, -5, 34, 36, 9, -19, 29, -54, -36, -3,
    -3, -47, -2, 35, 17, 2, 3, -19, -33, -11, 3, 27, 41, 27, -11, -19,
    8, 2, -4, -48, -26, -19, -15, -10, 26, 19, -9, 16, -12, 20, -18, -6,
    -9, 5, 23, 45, 1, -31, -31, 9, 39, 71, 107, 127, -47, 17, 33, -5,
    19, 19, 15, -42, 33, 24, -23, -18, -17, 54, -24, -14, -19, 9, -5, 22,
    -13, -1, 9, -13, 11, 6, 37, 21, -12, -34, -45, -10, -33, -5, -17, -41,
    2, 11, 20, 76, 55, 67, -14, -24, 4, 2, -84, 18, -5, -14, -8, 13,
    98, -27, -22, -69, -22, 32, -4, 20, -2, -56, 11, 3, 12, -3, -30, 4,
    41, -17, -7, -3, -5, 0, 31, 55, 5, -24, -16, 13, -27, 11, -21, -9,
    2, 62, 0, -38, 17, 21, 48, -50, 23, 4, 19, 30, 100, 100, -34, -8,
    39, 18, 3, 50, -3, -3, 12, 21, 11, -42, 5, 1, -17, -26, 15, 14,
    10, 32, 13, -26, -3, 39, 28, 7, -10, 15, -28, 39, 23, 21, -17, -25,
    15, -7, 30, -2, 18, 11, 24, 8, -43, 13, -12, 20, 33, 89, 34, -62,
    4, -3, 32, 45, 54, 38, -39, 45, 12, -5, -21, 36, 4, -44, 11, -3,
    -11, 2, 17, 25, -23, 85, 72, 34, 5, -2, 48, 2, 13, 24, 40, 4,
    -13, -8, 4, 19, 9, -22, -67, -52, -32, -36, -12, -15, 28, -22, 5, -7,
    -64, 31, 7, 34, 20, 18, 19, -50, 2, 10, -15, 2, -17, -30, -64, 28,
    39, 9, 19, -30, -61, 17, -31, 26, -39, -46, -12, -28, -21, -28, 22, 11,
    12, -12, 19, -19, -16, 0, 27, -8, 40, 50, -34, 2, -32, 5, -44, -88,
    -30, -50, -15, -22, 48, -30, -12, -20, -26, 22, -17, 65, 52, 9, 17, -7,
    -2, 14, 17, -3, -5, -2, -2, 7, -10, -23, 61, 78, -21, 0, 10, 9,
    0, 19, 9, -11, 25, 18, 23, 39, 40, 76, 16, 29, -15, 45, 4, 65,
    67, 74, 46, -8, 109, 57, -39, 54, 53, 45, -2, 58, 43, -38, -18, -9,
    0, -13, 1, 30, 40, 45, 5, 22, -4, 21, 45, 98, 29, -42, -11, 10,
    -6, 30, 3, -2, -3, 1, 34, 21, 18, 2, -35, -5, 0, -12, 2, -15,
    -16, -25, -8, -22, 31, 13, 34, 82, 65, 46, -34, 15, 20, 15, -13, -1,
    -5, 6, 21, -1, 20, -4, -16, -33, -32, 13, 87, 13, -54, -44, -66, -11,
    -120, -105, 28, -26, 40, -108, 96, 69, 21, 72, -105, -70, 44, -125, 80, -82,
    -80, 20, 89, 22, 81, -115, -76, -71, 43, -51, -61, -92, 45, -90, 50, -4,
    54, 2, 83, 14, 26, 1, -102, -59, -124, 26, -124, -53, -75, -56, 5, -66,
    35, -89, 73, -113, 89, -46, 74, 15, -41, 23, -39, 24, -26, 87, 73, -48,
    -115, 52, 73, -10, -110, 100, 34, 78, -102, 16, -111, 60, 94, -34, -32, -126,
    18, -33, -114, -123, -63, 75, 43, -52, 93, 11, 95, 70, 84, -88, -104, 6,
    -19, 24, -92, 23, -83, -54, 51, 70, -8, 26, -22, -58, -22, -104, 36, -108,
    35, -51, -17, 41, 85, 48, -56, 47, 14, -88, 77, -2, -31, -38, 95, -97,
    -57, -41, -75, 21, -109, 84, -56, -58, -111, -105, 56, 82, 58, 68, 36, -124,
    56, -81, 52, -55, -93, 65, 23, -101, -16, 57, -127, -4, -124, -103, 19, -112,
    -64, -15, -48, 59, -123, 46, 22, -114, -14, 43, -27, 30, 6, 69, -22, 2,
    32, -117, 36, -103, -17, 13, -47, -122, -29, 52, 59, -53, -70, 51, -91, -69,
    1, -110, -29, 19, 44, 6, -87, -109, 5, -67, 4, 27, 28, -119, -38, -58,
    -51, -37, -93, 8, 35, -75, 11, 15, 89, 31, 16, -20, -36, 15, -127, -119,
    -60, -63, 51, 16, 61, -13, 37, -21, -52, -63, 52, -47, 44, -127, -48, -17,
    -60, -92, -11, 7, -38, -116, 3, 31, -120, -78, -112, -120, 80, 62, 74, -22,
    -95, 93, 9, 73, -55, 8, -95, -2, 18, 41, 14, -29, -83, -123, 55, -125,
    -41, 20, 69, 85, -108, -67, 63, -57, -80, 39, -7, 83, -115, 68, -59, -106,
    14, 91, -6, -88, -20, -110, -100, -54, -12, -93, -15, -48, 23, -91, 28, -2,
    -53, 63, 31, -5, -49, 94, 75, 28, -63, 49, 48, 89, 45, -45, 22, -93,
    44, -18, 87, -33, 77, -91, -48, -90, 68, 38, 44, -97, 58, -93, -80, 46,
    91, 83, -36, -38, -10, 21, 96, -79, -5, 3, -19, 87, -111, 43, -69, 28,
    88, -28, -37, -63, -66, -24, 73, -119, -115, -72, 18, 99, -31, -44, 36, -74,
    -11, -90, -59, -101, -92, 50, -61, -79, -47, -32, -114, -120, -120, -110, -95, -77,
    100, -4, 69, 34, -7, 0, -49, -64, -66, -56, 43, -2, -78, 21, 7, 79,
    -62, -73, 20, -36, 20, 26, -23, 25, -87, 3, -44, -30, 66, 65, -106, 26,
    -92, -17, 30, -40, 4, -88, -116, -102, -5, -59, -45, -81, -113, -75, -19, -21,
    -74, 45, -24, 1, -93, -44, 25, -69, 74, -57, -4, -60, -4, 11, -72, -82,
    -86, -107, -113, -46, -69, -122, -75, -95, -13, 24, -75, 18, -10, -11, -125, -19,
    -124, -122, -20, -109, 13, -63, -116, -25, -4, 4, -50, -5, -121, -91, -117, -70,
    -16, -68, -22, -3, -41, 25, -72, -25, -121, -20, 59, -3, 70, -48, -120, -1,
    -3, 8, 44, -126, -45, -94, -63, 64, -46, -41, 22, -85, -7, -52, 37, 26,
    -68, -15, -49, -8, -76, -28, -42, -79, -104, -127, -110, 22, -42, 33, 21, 4,
    -119, 30, -20, 3, -41, -68, -82, -93, -64, -76, 61, -75, -71, -90, -62, -6,
    -26, -39, 78, 31, -77, -123, -73, 28, 15, -17, -52, -103, -50, -92, -30, 4,
    -22, -48, -99, 18, -62, -17, -4, -86, 27, 14, -14, -115, -46, -65, -9, 7,
    -74, -60, -63, -15, 65, -73, -55, -95, -31, -37, 8, 31, -18, 27, -4, -123,
    5, -24, -26, -63, -2, 5, 22, -63, -121, -99, -22, -61, 32, 12, -71, -87,
    -48, -108, -96, -117, 18, -67, -123, -48, 12, -94, 13, -42, -123, -41, -6, -53,
    53, 12, -19, -97, -103, -58, -55, 2, -71, 19, -88, -92, -84, 16, -15, 10,
    -40, -112, -43, -99, -46, -52, -73, -78, -16, 12, -103, -25, -102, -119, 27, -8,
    -39, -54, 26, -43, -68, -42, -90, -62, -10, -40, -2, -76, -104, -26, 23, -77,
    -81, -15, -37, -11, -35, -3, -94, -5, 18, -35, -2, 3, -125, -61, -5, -22,
    46, -30, -11, -95, -17, -53, -56, -79, -52, -12, -82, 25, -63, 67, -43, -87,
    -86, -5, -121, -40, -52, -50, -39, -14, -105, 49, -10, -22, 29, -15, -21, -113,
    -29, 47, -12, 0, -66, -4, 31, 19, -72, -3, -5, 52, -105, -24, 29, -76,
    -114, -87, -117, -56, 7, -118, -103, -116, -24, -105, -20, -103, -24, 2, -78, -89,
    1, -108, -15, -46, -39, -28, -59, -80, -99, 23, -4, -36, -99, -28, -87, -32,
    23, -104, -100, -124, -47, -31, -93, -73, -1, -40, 8, 32, 70, 65, 25, -118,
    40, 34, -45, -28, 16, -57, 18, -20, -8, -78, -36, -50, -107, 5, -64, -69,
    -16, -53, 29, -84, 33, -17, 14, 13, -65, -59, -78, 38, -38, -28, -78, 8,
    -63, 66, -34, -30, -6, -106, -3, 18, 20, -24, 25, -99, -73, -25, -31, -24,
    4, -89, -94, -21, -20, -66, 22, -21, -42, -79, -25, -36, -116, 39, 28, 19,
    17, 0, -7, 58, 39, -39, -24, -4, -34, 13, -1, -42, -18, -73, -25, -13,
    -54, 31, -66, 30, 9, -46, -38, 56, -73, -31, -5, -64, -38, -127, 12, -28,
    -52, -75, 53, 53, -78, -100, 63, 32, -22, 63, -18, -54, -61, -26, -37, -18,
    -6, -97, 28, -41, -45, -121, -57, -7, 11, -28, -94, -9, -98, -29, -2, -61,
    -71, 19, -32, -42, -69, 4, -85, -111, -53, -39, -43, 22, -27, -6, -80, -64,
    3, 12, -27, -32, -59, -79, -25, 58, 14, -45, -10, -58, -3, -50, -51, -2,
    -82, 53, 18, -27, 30, -40, -77, -80, -14, 7, -5, -12, 40, -78, -7, -23,
    -20, -73, -55, -12, -107, 25, -108, -33, -94, 1, 38, -42, -67, 19, -26, 3,
    -57, -49, -53, -35, 23, -65, -111, -64, 10, -58, -19, -19, -14, -39, 8, -42,
    -66, -51, -17, 19, -56, -8, 58, -23, -5, -38, 34, -53, -84, -99, -73, -21,
    4, -60, -103, -25, -47, -45, -57, -24, -34, -93, 20, 9, -73, -87, -37, -92,
    -23, 46, -70, -52, -85, 19, -13, -6, -33, -14, -93, 12, 22, 17, -17, -16,
    -7, -116, -70, -34, 21, -36, -36, 39, -48, -65, -46, -25, 0, -71, -42, -55,
    12, -50, -60, -71, -45, 17, -65, -41, -44, 8, -42, -63, 62, -88, -56, -40,
    -76, -66, -4, 5, -34, -87, 31, 50, 22, -32, -42, 29, -114, -25, -17, 10,
    -66, -15, 31, -71, 48, 2, -46, -3, 39, -57, -84, -51, -25, 31, -5, 46,
    17, -15, 35, -54, -24, -38, 57, -39, 12, -2, -14, 20, -7, 31, 20, -5,
    48, 25, -64, -90, 10, -14, 39, -10, -16, -42, 5, -69, -13, -54, -70, 7,
    -71, 21, -5, -24, -90, -41, -55, 18, -65, -15, -86, -18, -86, -8, -21, -2,
    -72, -62, -79, -51, -42, -13, -73, -35, -88, -24, -34, -58, -74, -19, -22, -74,
    -60, -91, -23, 23, -44, 41, -45, -79, -24, -26, -31, 42, -99, 21, -32, 74,
    -52, 86, 18, -42, -3, 79, 42, -76, -90, 58, 76, -80, -27, -6, -35, -32,
    0, -14, -85, -70, 4, -49, -46, 73, 85, 39, -105, 51, 69, 31, 0, -52,
    -17, 42, -113, -58, 49, -99, 30, -10, 51, -67, -80, -98, -65, -44, -124, -64,
    -5, -17, 61, -73, -32, 76, -2, 39, -58, -70, -29, 101, 21, -117, -43, -33,
    52, -29, -17, 44, -44, -51, -103, -111, -66, -8, -70, -38, -103, -49, -71, 76,
    -107, -73, 87, -117, -95, -31, -88, -116, 31, -108, -76, -24, 71, -57, 33, 65,
    -82, -35, -65, -99, -94, -47, 10, 25, 25, 35, -20, 54, -33, -4, -70, 50,
    105, -98, -96, 31, -57, -43, -26, -42, -30, 54, 11, 52, 66, -30, -70, -53,
    -2, 36, 6, -72, -99, -19, -6, -35, 54, -76, 18, -51, 68, -78, 51, -33,
    -37, 18, 1, 6, -39, 23, -48, -47, -57, -80, -93, -107, -110, -61, 77, -9,
    19, 91, 24, -105, -21, 19, 19, -13, -95, 24, -108, -57, -43, -55, 82, -38,
    -71, -121, 63, -31, 49, -3, 2, -38, -76, -56, 52, 24, 12, -127, 10, 66,
    45, 80, 3, -115, -57, 82, 62, -86, -91, -97, -94, 55, 0, -50, 50, -34,
    -91, -79, 56, 38, 5, 53, 18, 21, 79, -13, 69, 36, 42, -53, 69, 17,
    -62, 46, 26, 38, -87, 3, 70, -63, 14, 14, -75, 6, 49, -56, 70, -14,
    -31, -9, 32, -60, 20, 14, -55, -68, 44, -74, -30, -108, 77, -25, 66, 31,
    -55, 54, -22, -20, 33, -10, 71, 48, 68, -54, 18, 19, -69, -5, 33, 49,
    76, -68, 13, 72, -14, -90, 75, 32, -52, -36, -55, 21, -22, -59, -6, 83,
    69, 88, 38, 100, -53, -46, -81, 29, 74, -104, 76, -93, 24, 64, -103, -83,
    55, 16, 58, 14, 11, 93, -40, -88, -84, 5, 22, -16, -39, -22, -9, 31,
    46, 17, -110, 56, -7, -1, 12, -49, -5, -24, 75, -81, -117, 14, -81, 80,
    37, 13, 70, -91, 40, -25, -93, -92, -60, -52, 0, -19, -63, 2, 24, -108,
    -39, -99, 35, 69, -59, -101, 14, 48, 55, 66, -92, 30, -73, 18, 62, -99,
    -89, -40, -103, 64, 48, 60, -95, -98, 46, -62, -35, 30, 76, -72, -28, -25,
    8, 65, 72, 31, 43, 22, 23, 22, 9, 5, 40, 16, 9, 1, -35, -9,
    -19, 13, -13, -45, 15, -21, 9, 11, -1, -26, -69, 2, 20, 24, 15, -4,
    34, -14, -5, 49, 28, -40, -20, 0, 37, 19, -19, -7, -23, -37, 22, 14,
    16, 17, 47, 45, 38, 45, 49, 35, 11, 2, -9, 64, 16, -6, 34, 12,
    -10, -19, 0, -16, 4, 49, 21, -8, 13, -10, -80, 32, 52, 19, 9, 19,
    24, 0, 22, 8, 1, 41, 23, -58, -74, 15, 31, -4, 13, -29, -82, -55,
    -6, 23, 26, 27, 63, 19, 50, 30, 5, 8, 8, 38, 15, 30, 18, -4,
    3, -36, -55, 13, -23, -50, -3, 3, -19, -30, 10, -41, -41, 40, 16, -13,
    39, 51, 33, 27, 39, 40, 5, -2, -26, -4, 29, 14, 22, -36, -70, -47,
    -19, -9, -7, 33, 57, 39, 36, 40, 20, 28, 4, 3, -14, 0, 27, -15,
    -35, -40, -58, -19, 4, -21, -26, 22, -12, -22, -21, -5, -42, -31, 66, 65,
    18, 27, 47, 38, 9, 34, 20, 66, 68, 35, 13, 12, -27, -6, -34, -32,
    -50, -48, -20, -39, 32, 0, -3, 31, 27, 35, 11, -18, -11, 1, 21, 16,
    2, 23, -5, -15, -1, 88, 37, 7, -10, 47, 16, 18, 10, -7, -41, 23,
    63, -1, 20, 19, 53, 19, 47, 6, 13, -14, 33, 78, 86, 7, 30, -12,
    2, 23, 44, 26, 28, 50, 4, 23, 11, 44, 36, 30, 28, -31, -36, 8,
    -3, 13, 8, 10, -32, -90, 6, 38, 26, 23, 42, 73, -32, 104, 127, 55,
    29, 23, 44, 9, 70, 97, 5, -6, 43, 57, 38, -34, 4, -4, 33, 6,
    45, -13, -96, -45, 2, 25, 13, 24, 54, 55, 32, 43, 20, 23, -6, -42,
    -7, 3, 32, 24, -11, -34, -31, -8, -41, 12, -4, -17, 47, -35, -6, -39,
    17, -3, 25, -2, -48, -4, 29, 19, 2, 18, -80, -68, -82, -3, 21, -7,
    -9, -106, -125, -66, -31, 68, 27, 42, 35, 32, 70, 35, 22, -10, 10, -12,
    -5, -5, 41, -9, 26, -26, -49, -50, -8, 2, -7, -17, 2, -50, 20, 86,
    22, -19, 20, 79, 53, 15, 13, 53, 26, 30, 5, 35, 51, 55, 50, 57,
    17, -2, -6, 104, 81, 39, 13, 27, 73, -31, -38, -52, -120, -103, 57, 3,
    -51, 92, -71, 15, -109, 33, 63, -124, 78, -49, 13, -25, -96, 79, 46, -4,
    -79, -48, 39, -93, -15, 89, -125, -17, 80, 66, 99, -42, -114, 48, -98, 81,
    -94, 85, -57, -67, 31, -105, -34, 80, -84, -45, 1, -74, -102, -36, -41, -16,
    -108, -119, -69, 9, 68, -39, 86, 52, -69, 96, -91, 38, -109, 0, -58, 24,
    -117, -61, -31, 64, 32, 98, 13, 99, 41, 72, 1, -33, -52, -71, 80, 43,
    1, -33, 50, -4, 65, -23, -16, -102, 32, 25, -95, -33, -100, 61, -107, 78,
    -126, -52, -36, -76, -32, 15, 86, -106, -91, -53, 36, -102, 71, 27, 90, 59,
    -51, -61, 47, -110, -91, 96, -53, -6, 92, -115, 81, -66, -32, -127, -25, -96,
    -63, 18, -62, -49, 82, 70, -48, 24, -34, -23, -119, 16, 44, -41, -104, -70,
    100, -18, 88, 76, -71, 9, -64, -21, 37, -13, 39, 9, -17, -52, 49, -106,
    35, -31, 91, 80, -16, 15, -36, 83, -46, 45, 21, -112, -82, 13, 64, -21,
    -15, -24, -68, 81, 32, 39, -7, 20, 6, -70, -3, -12, -17, 13, -68, -82,
    -56, 58, -83, -42, 99, -48, -94, -16, -44, 32, 83, 90, 82, -63, 34, -98,
    4, -81, -45, 0, 67, 11, -70, -18, -45, -21, 38, 90, -5, -44, 90, -21,
    46, -71, 100, 18, -73, 39, 15, 26, 5, 85, -92, -105, -17, 50, -11, 68,
    -6, -60, -24, -74, -88, -5, 75, -18, -3, -89, -93, -115, -5, -116, -90, -90,
    -34, 88, -73, 60, -124, -107, -19, 94, 20, -29, 47, -72, -82, -44, -51, 20,
    -13, -125, -8, -80, -116, -92, 76, 42, -76, 41, -116, 84, -76, 20, -71, -91,
    -33, -22, -68, 57, 48, -52, 98, -112, -118, -6, -118, 18, -34, -51, 88, -11,
    -93, -92, 49, 45, 60, -91, -3, 17, 1, -20, -61, -75, -60, 43, -102, 83,
    -97, -45, 17, -29, 24, -4, 58, 81, -89, 98, -91, 63, 52, -118, -113, -72,
    -46, 92, -7, -88, 52, 30, 45, -52, -63, 41, -44, -48, 28, 87, 6, 90,
    32, -3, -126, -45, 22, -102, -9, 22, -116, 54, -29, 14, 36, 37, 10, -26,
    -115, 47, -125, -10, -75, -27, -93, 56, 45, 13, 73, 10, -54, -32, -56, 80,
    -101, -66, -22, 59, -120, -61, 56, -88, -106, -34, 68, -74, 7, -58, 80, -44,
    -70, -47, -82, 70, -80, -25, -83, -105, 1, 61, 1, -17, -78, -66, 64, 55,
    -15, -109, 9, 35, -49, -62, -87, -26, -74, -34, 1, -114, 57, 81, -12, -29,
    -35, 2, 34, -46, -66, -17, -31, -78, 32, -40, 33, -113, -110, -39, -113, -105,
    -105, -115, -34, -121, -30, 88, 18, -73, 61, 25, -22, 43, 17, -82, -47, 73,
    44, 27, -44, -35, -49, 88, -13, -112, -75, -3, 48, 29, 64, -34, 60, 40,
    0, 71, 63, -107, 15, -89, 41, -57, 81, -34, 95, 89, -102, -30, -127, 10,
    17, 63, -26, 5, 11, -61, -52, -6, -118, -19, -72, -36, 91, 49, 44, 61,
    -4, 50, -31, 94, -38, -56, 39, -83, -47, -116, 37, -69, 9, -3, 9, -105,
    -44, -116, -125, -14, -76, -19, 92, -54, 13, -32, 10, -85, -87, -23, -3, 5,
    -30, 39, -99, 93, -3, 44, -82, -98, 50, -101, -12, -76, -90, 55, -116, -35,
    15, 44, 26, 78, -82, 68, -122, -55, -36, 26, 2, -83, -117, -47, -23, -109,
    -26, -119, -79, 32, 12, 74, -18, 45, 8, 70, -50, -35, -80, 68, -74, 68,
    26, -48, -124, -76, -68, -23, 82, 12, -103, -23, -81, 68, -94, 73, -35, 17,
    21, -35, 37, -115, -8, 26, -16, 36, -53, -28, 41, -100, 58, 25, -14, -100,
    45, 43, -37, -83, -83, -126, 93, -27, -36, -119, -10, -82, -118, -102, -34, 67,
    49, -49, -87, -106, 50, 63, -114, 80, -46, -28, -110, -70, 83, -70, -101, 23,
    17, -119, -75, 17, -30, 48, 82, -27, -35, -20, -4, 59, 49, -61, 83, 87,
    -117, 48, 41, -30, 11, -104, -44, -62, 61, -107, 0, -80, 73, -116, -105, 47,
    92, -20, 0, 37, -75, 40, -28, -22, 25, 42, 47, 72, -67, 84, -83, 50,
    -22, -65, 50, -58, -45, -76, 32, 50, -89, -11, -53, 1, 43, -103, -47, 69,
    -64, 93, 89, -55, 20, -118, -62, -5, 9, -25, 40, 13, 71, -20, -2, -68,
    -116, -26, -113, 29, -69, -91, 23, -62, -57, 35, 39, -114, 79, 20, -54, 75,
    -37, 6, 8, 48, -52, -28, -90, -116, -34, 50, 23, -75, 17, 88, -122, 4,
    -23, -18, 85, -47, -122, -14, -54, -30, -26, -31, -19, 4, -5, 24, 2, 14,
    0, 64, 54, 6, 22, -15, 11, -4, 0, -28, 28, 102, 45, -25, -14, 16,
    45, 19, 21, 58, 30, 36, 109, 17, -51, -63, -8, 12, 26, 7, -42, -67,
    -31, -6, -33, 0, -14, -13, -23, -20, 11, -17, -4, -23, -44, 6, -2, -20,
    -11, 3, 46, 45, 70, 5, -18, 7, 35, 66, 97, 123, -7, -34, 8, -12,
    -91, -32, 0, -127, -41, 20, -22, -61, -2, -10, -58, -4, 34, 28, 43, 35,
    22, 42, -5, 6, 5, 4, -5, -23, 7, 12, 8, -15, -53, -1, 10, -3,
    -21, 2, 12, 28, 32, 22, -5, -13, 38, 11, -6, -2, 8, 26, 70, 1,
    -26, -4, 3, 36, -12, 40, 42, 52, 69, 46, -10, -45, 15, 48, 91, 57,
    6, -8, -7, -34, 7, -17, -46, 0, -4, -14, -50, -37, -40, -43, -5, -3,
    -6, -10, -29, 15, 10, -1, -22, 25, 12, -24, 21, 41, 17, 18, 18, 22,
    26, -6, 13, 45, 4, -15, 62, 28, 18, 11, 37, -9, 11, 60, 41, 15,
    42, 47, 10, 32, -4, -42, 3, -42, -14, -12, -6, -55, -7, -4, 2, 5,
    5, -6, -8, 16, -3, -1, -51, -52, -6, -50, 4, 18, -22, -50, -55, 26,
    41, 14, -13, -28, -7, -22, 58, 64, 10, -32, -19, -57, 5, 74, 25, -42,
    -50, -49, -42, -8, 14, 24, -16, -36, -62, -65, -36, -16, 10, -18, -23, -3,
    -5, 19, 20, -23, -6, -8, 11, -29, 20, 34, -27, 24, 39, 74, 64, -8,
    33, 2, -21, 19, 20, 71, -40, 3, 43, -24, -105, -118, -32, 62, 60, 17,
    -68, -113, -25, 66, 50, 42, -13, 35, 17, 37, 16, 8, 1, -17, 1, 10,
    -7, -23, -17, -18, -5, 7, 45, 105, 59, -7, -3, 30, -9, 65, 62, 24,
    15, -15, 10, 6, -79, -76, -2, 20, 13, 20, -14, 3, 78, 73, -12, -14,
    -14, -22, 95, 126, 34, 5, -13, -33, 9, -67, -121, -44, 17, -29, -59, -11,
    -13, -7, -10, -36, -27, -5, 3, 11, -7, -28, -25, 13, 5, -12, 19, -5,
    -8, -3, -2, 13, 27, 13, -33, 11, 14, 9, 39, 19, -25, -43, -2, -2,
    38, 16, 50, 11, -10, 7, 36, 48, 14, -34, -101, -64, -8, -34, -35, -18,
    56, -44, 33, -98, 21, -100, -91, -29, -83, -114, 46, -31, -55, 58, -27, 40,
    -17, 71, 28, -100, -44, 45, -3, -64, 77, -47, 53, -127, 1, -56, -80, -119,
    22, 15, -77, 5, -4, 43, -89, -34, 63, 19, -82, -2, -75, -67, -76, 48,
    -77, -118, 20, 80, -79, 13, 69, -80, 59, -17, 92, -77, -80, -94, -1, -17,
    -111, 47, -121, -19, -112, -79, -126, -33, 100, -74, -81, -61, -32, -79, -81, -46,
    -58, -39, -36, 58, -23, 5, 6, 8, -27, -79, -80, -69, 2, 9, -117, -78,
    -50, 5, 59, 60, -66, -85, 68, -123, 86, 15, 0, -25, -89, -35, -106, 55,
    -48, -44, -33, -62, 87, 42, 68, -30, 7, -49, 91, 35, 63, -114, -43, -50,
    -4, -16, 12, -5, -111, 94, 19, 84, 66, -14, -87, -92, 88, -56, 92, -19,
    -12, -18, 74, -49, 75, -40, -113, -66, -47, 79, -20, -1, 8, -21, -112, 82,
    -59, -47, -109, -10, 9, -96, -94, 9, -93, 110, -42, -10, 84, -59, -88, 1,
    48, -39, -64, -82, -103, 44, -126, -127, -61, 28, -5, -48, -72, -27, -37, 44,
    26, -102, 53, -22, 69, 43, -45, -86, 18, -124, 43, 52, -115, -55, -96, -99,
    -97, -114, 94, -74, -86, 81, -22, -55, 55, -68, -5, 100, -6, 54, -20, -121,
    -32, -20, -75, -113, -41, -52, -67, 72, 23, -102, 100, -3, 49, 36, 55, -83,
    -85, 25, 30, 33, -60, 82, -126, -68, 74, -63, 99, 32, -20, 55, -34, 63,
    69, 72, -33, -11, 87, 71, -86, 89, 92, -21, 71, -81, -70, 81, -98, 25,
    -85, -64, 80, 1, 43, -82, -100, -30, -80, -68, -114, -82, -46, -16, -9, -64,
    35, 19, 96, -65, -91, 62, -94, -19, 58, -90, -31, 14, -25, -107, -74, -20,
    87, -31, 11, -107, 28, 76, -76, 39, -28, -118, -42, -22, -47, -94, 61, 23,
    17, 12, 60, 34, -101, -58, -9, -36, 79, 100, -112, -55, 77, -51, 12, -54,
    -116, -60, 36, 66, -117, -97, -98, 58, -119, 59, 99, -116, 68, 59, -49, 8,
    -32, 14, -106, 33, -40, -114, 31, 93, 96, -104, -36, -24, 38, -29, -20, -108,
    43, -81, -123, 11, 3, -31, 36, -16, -27, 84, 12, 94, 68, 95, 95, 19,
    69, -125, 71, 43, -15, -40, 62, 24, -1, -4, -20, -7, -30, -32, -7, -8,
    -6, -3, 0, 10, 12, -13, -22, -50, -30, 30, 44, 63, 51, -9, -47, 17,
    41, 29, 29, 41, 13, 5, 12, 13, 9, -12, 19, 14, 0, 6, 3, -3,
    -22, 9, 6, 16, 22, 28, 0, 2, -2, 20, 14, 14, -32, -20, 14, 19,
    -2, 22, 46, 32, 127, 56, 15, -4, -4, -22, 37, 82, 66, 12, -3, -33,
    -31, 9, 51, -9, -13, 0, -10, -6, 53, 16, -18, 12, 2, -11, -15, 16,
    47, 29, 8, 22, 0, 3, 9, 4, 13, 23, 0, -4, -35, 9, -8, -6,
    -22, 11, -8, 2, -4, 38, 10, -47, 11, -36, -51, -4, 23, 32, -23, -19,
    -49, -28, -14, 18, 18, 27, 20, 5, -1, 9, -13, -3, 10, 27, 13, 10,
    15, 7, -36, 6, 18, 37, 17, 18, 10, -36, -13, -2, -7, 20, -7, -31,
    -33, -23, 7, 27, 15, 16, 18, 15, -34, 10, -45, -45, 14, 25, 6, -62,
    -6, -60, -57, -19, 5, 13, 19, 21, 9, -18, 17, -18, -2, 36, 26, 17,
    -6, -7, -10, -12, 20, 25, 32, 27, 12, -3, -47, -20, 1, -6, 16, 23,
    16, 15, -12, 9, 22, 24, 14, -10, -19, -21, 19, 9, 35, 35, -40, -32,
    3, 1, 30, 9, 11, 6, 42, 39, 32, 31, 12, 16, 29, 41, 8, 21,
    1, 9, 1, -20, -10, -5, 13, 11, 26, 6, 2, 9, 11, 0, 6, 13,
    34, 11, 0, 8, 26, 58, 67, 32, 4, 11, -36, 44, 54, 3, 8, -48,
    -31, 0, 31, 15, -41, -14, -29, -6, 31, 24, 5, -13, -30, 2, 25, 20,
    7, -13, -24, 2, 31, 31, 1, 11, 4, 27, 12, 3, 22, 13, -3, -10,
    -17, -5, -1, -17, -11, 19, 17, 45, 44, 39, -1, 14, 4, -55, -93, -45,
    27, 15, 2, 24, -61, -34, -1, 13, 18, 2, 0, 2, 38, -5, -2, 8,
    -20, 6, -3, 17, 12, -16, -22, -41, 13, 29, 53, 28, 25, -7, -23, 11,
    -9, 32, 33, 8, -23, -3, 7, 52, 51, 14, -21, -31, -3, 20, 8, 15,
    40, 33, -18, 10, 5, 3, -19, -25, -19, 7, 18, 27, 10, 6, -3, 10,
    39, 7, 20, 33, 13, -7, 6, 15, -34, 1, 8, 8, 8, -4, -3, 1,
    19, 20, 54, 27, 46, 22, 25, 18, -3, 36, -21, -34, -12, 49, 48, 5,
    25, -23, -60, -127, 4, 39, 33, -18, 2, 73, 66, 36, 56, 4, -26, 40,
    35, -8, 27, 18, 0, 7, -24, 1, -43, 31, 35, 23, 12, -1, -36, -13,
    14, 26, 54, 48, 69, 4, 43, 29, 3, 16, -26, -26, -82, -48, 22, 11,
    -1, 16, 59, 62, 80, 58, 41, 20, -38, -3, 35, 97, 25, 7, 16, 17,
    -20, 18, -11, 41, 20, 26, 20, -17, 11, 55, 27, 24, 29, -2, -1, -33,
    23, 32, 15, 16, 58, -1, 25, -4, -16, -11, 7, 7, -14, -27, -17, -6,
    -21, 9, 36, -7, -50, -63, -60, 30, 51, 47, -38, -6, 43, -16, 36, 26,
    37, 20, 36, 30, -28, 58, 27, 18, 24, -17, -30, -9, 19, 28, 10, -12,
    36, -8, 22, -17, 29, 44, 43, 42, 5, 23, -18, -21, -20, 17, 37, -34,
    -3, -1, -28, 6, -20, -21, -22, -7, 8, 2, -1, -12, 9, 22, -32, 15,
    33, 13, -5, 24, 4, 10, 12, 18, 48, -12, -23, -35, -15, -29, -18, 14,
    4, 12, -31, 29, 13, 31, 13, 13, 33, 6, -15, 2, -15, -7, 59, 42,
    27, 44, -25, -49, -2, -3, 8, -31, 47, -21, 10, 27, 18, 40, -31, -12,
    -14, -16, 17, 70, 2, -11, 10, 13, 14, 25, 23, 57, 78, 19, 22, 12,
    42, 49, 34, 26, 28, 26, -5, 6, -5, 23, -24, 25, -2, -38, -39, 6,
    33, -5, 23, -22, -16, -8, 5, 80, 46, 25, -6, -14, -9, -2, 13, -40,
    27, -32, 11, 17, -63, -66, -19, 23, 39, 52, -1, -1, 27, 40, 26, 31,
    14, 9, 27, 18, 13, 28, 14, 9, 39, 14, 31, 41, 0, 27, -4, -44,
    -90, -30, 7, -15, 27, -22, 33, 1, -54, -8, -54, 8, 32, 20, 16, 10,
    23, 13, 38, 45, -5, 4, 46, 3, 28, 36, 46, -19, -26, -27, -9, -38,
    23, 31, 88, -15, -10, 6, 2, 11, 28, 19, 13, 48, 21, 10, -18, -27,
    -18, 43, 63, 29, -13, -9, -28, -25, -10, -6, 13, -16, -5, -27, 3, -6,
    17, 8, 69, 20, 35, 50, 17, 14, 8, -15, 1, 12, -1, -9, 14, 25,
    17, 47, -11, -46, 1, 30, 35, 34, -2, -27, -15, -6, 17, -2, -23, -25,
    6, -21, -60, -51, -53, -8, -9, 0, -15, -25, -20, -22, 4, -15, 6, 1,
    -6, -10, -45, -16, -3, -4, 12, -11, 27, 37, -4, 32, 15, -32, -8, 31,
    71, -9, 1, -1, -7, -9, 18, -3, -9, 12, -7, -2, 20, -23, 5, -4,
    8, -6, 10, -27, -47, -17, -5, -3, 6, 0, 29, -24, 20, 5, -9, -1,
    55, 40, 24, 55, 4, 2, 12, 21, -58, 12, 89, 20, 23, 17, 0, -38,
    -83, -34, 10, 2, 3, -25, -36, -34, -40, -5, 15, -39, -28, -3, 5, -21,
    -35, -26, 8, -16, -34, -12, 14, 22, 2, -8, -35, 7, -9, 7, 31, -19,
    -5, -24, 2, -37, -11, 2, -25, 6, 3, -16, 3, 0, 9, 14, 39, 5,
    3, 21, 35, 1, 7, -21, -16, -2, 1, 38, 8, -27, -32, 1, 48, 18,
    -15, -33, 17, 40, 18, 10, 52, 25, 10, 3, 3, -4, 30, 13, -8, 17,
    -1, -10, -7, -12, -23, -30, 6, 2, -8, -16, -18, 3, 11, -7, -6, 40,
    19, 19, -25, -8, -19, -9, 19, 9, 29, -6, 3, -19, -22, -10, 31, 50,
    29, 17, -21, 17, 38, 26, 54, 63, 29, -9, 1, -1, -19, -4, -12, 1,
    -17, -9, 5, 3, -29, -1, -19, -20, 9, -16, -11, -24, -7, -57, -46, -6,
    9, 18, 2, 5, -1, -15, -15, -29, -20, 36, 43, 20, 4, 14, -1, 11,
    23, 11, -5, 9, 5, -13, 18, 33, 48, 15, 19, 5, 7, 23, 83, 24,
    37, 28, 36, 34, 70, 29, 71, 20, -22, -7, 17, -15, 43, 80, -27, -41,
    -2, 40, 47, -15, -76, -74, -9, 18, 11, 4, -59, -60, -4, -8, -2, -11,
    -24, 12, 19, 8, -6, -3, -46, -74, -64, -21, 33, 11, 19, -64, -26, -46,
    -33, 10, 2, 19, -36, 3, 4, -11, 18, -3, 21, 26, 35, 8, -17, -5,
    12, -10, 17, -5, 5, 33, 11, 43, 2, -76, -127, -42, -23, 62, 0, -18,
    -42, 0, 27, 37, 17, -15, -12, 26, 42, 65, 48, 23, 24, 30, 6, -2,
    38, 20, 22, 39, -42, -26, 0, -36, -21, -11, -49, 29, 5, -6, -7, -19,
    -15, -19, 0, 15, 32, 38, -1, -9, -8, -17, -19, 32, 11, 8, 19, -24,
    -75, 11, -28, -74, 61, -24, -76, 56, -127, -37, 59, -25, 39, -9, 30, 42,
    -20, 38, -95, 43, 71, 91, -117, -20, 49, 71, -93, -40, -69, 81, 49, -39,
    29, 21, -34, 4, -104, -54, 61, -27, -106, -60, 56, -97, -50, -105, 40, -36,
    -92, 64, 50, -85, -42, 16, 52, -81, 44, -117, 32, -117, 85, -113, 7, -67,
    18, -121, -49, 44, 60, -54, -102, -32, 10, -99, 2, 6, -75, -26, -28, 20,
    -1, 31, -93, -40, -48, -34, 7, -33, 3, -19, -58, -116, -32, -33, -111, 19,
    -99, -71, -86, -78, -66, 58, -80, -37, -26, 19, -8, -43, -56, -104, -31, -26,
    -19, -40, 101, 26, -39, -97, -70, -8, 33, -89, 56, -1, -84, 83, -49, -82,
    39, -114, 85, 79, 11, -6, 10, 12, -87, -127, -83, -78, 48, 23, 35, -26,
    -124, 81, -106, -59, 71, -73, 44, 29, -102, -35, -124, -60, 2, 26, -88, -46,
    28, 9, -31, -94, -33, 85, 88, -83, 101, 26, 59, 33, 50, -97, 89, 80,
    -118, -118, 19, -60, -42, 1, -56, 62, 69, 6, -59, 90, 13, -26, 87, -98,
    -24, 67, -88, -84, 68, 43, -122, 18, 26, -115, -86, 59, -10, -46, 1, -61,
    38, 90, 76, 81, -2, -119, -63, -60, -99, -92, -77, -56, -79, -7, 6, -113,
    27, -7, -50, -28, 70, 15, -109, 2, -109, -43, 19, -44, -2, -52, 58, 68,
    -84, -19, 15, 40, 72, -3, -21, -76, 73, 13, -68, 66, -8, 16, -52, 45,
    83, -46, 43, -75, -75, -124, 10, 42, -6, -73, 89, -36, -89, 85, 47, 54,
    -52, -67, 72, 48, 23, -27, 39, -65, -17, -46, 22, -60, -112, 33, -54, 59,
    -80, -110, -10, 70, -48, -71, -77, -7, 78, 27, -20, -50, -120, -114, -33, 45,
    -45, -93, -34, -6, -15, 22, -24, 82, 78, -125, -38, -109, -44, 18, -73, -120,
    5, -4, -4, 18, 57, -85, -2, 8, 27, -102, 69, 41, 47, 64, -21, -5,
    -48, 81, -4, 62, 40, 50, 43, -118, 68, -65, -27, 15, 16, 83, -28, 5,
    -97, 44, -115, -97, 17, -36, -6, -41, -4, 87, 15, -121, -103, -90, 17, -82,
    2, 34, 90, -74, 66, -20, -32, -86, -27, -73, 75, 39, 20, -53, 15, 42,
    -109, 25, 43, 28, -25, 61, -79, -32, 3, -30, 12, 30, 21, 4, 31, -18,
    -17, -15, -28, -58, -47, 40, 42, 6, -34, -27, 3, -28, 28, -32, -56, -60,
    31, -43, -35, 67, -51, -33, -28, 41, 14, -31, 45, -3, -19, 8, 78, 53,
    8, 17, 21, 3, 41, 45, 44, 25, -6, 4, 1, 27, 28, -60, 0, -12,
    -19, 7, 25, -49, -102, -23, 1, 16, 31, 75, -43, -76, -50, 32, -17, 12,
    42, -27, -56, -56, 17, -3, -9, -88, -20, 14, -34, 23, 3, 14, -63, 19,
    76, 48, -5, -4, -17, 31, 56, 50, 50, 14, 1, -33, 26, 1, 4, 11,
    25, -7, 9, -20, -39, -3, -16, 24, 12, -11, -17, -7, 31, -24, -10, 61,
    -30, -60, 15, -19, -34, -68, -51, -61, -26, -28, -21, 15, -40, -20, -19, -31,
    20, 13, 24, 85, 22, 0, 26, 54, 52, 63, 49, -27, 7, 30, 46, 46,
    17, 2, -12, 9, 22, 11, 13, 11, 62, -12, -2, 15, 30, 0, -41, -7,
    -23, -46, 23, 65, 6, -19, -38, -10, -12, -37, -4, -4, -14, -15, -19, 2,
    -60, -36, 25, 35, 82, 37, 3, 30, 17, 60, 49, 77, -30, 25, 46, 32,
    10, 40, 4, 27, 28, 41, 34, 39, 33, 52, 24, -9, 20, 50, 73, 1,
    25, 20, 27, 44, 64, -22, -18, 38, 36, 79, 70, 26, -2, 61, 44, 23,
    19, 66, 1, -17, 11, 34, 21, 41, 52, 55, 49, -3, 11, 0, 4, 15,
    21, 14, 9, 28, 23, 1, -34, 4, 34, 30, 22, 29, 4, 103, 108, -11,
    -19, 22, 85, 71, 127, 31, -19, -2, 2, 33, 99, 48, 31, 39, 58, 0,
    13, 2, 18, 18, 8, 73, 7, 15, 18, -8, 15, 64, 30, 9, -10, -26,
    0, 2, 35, 8, -9, 19, -87, -109, -33, 14, -4, -38, 12, -55, -28, -14,
    9, -18, -60, 19, -108, -81, -101, -7, -62, -51, 25, -66, -101, -21, 10, -39,
    -13, 3, 28, 10, 20, -11, 37, 1, 7, 64, 37, 65, 22, 19, 59, -12,
    31, 41, 31, 74, 52, 1, -21, 21, 40, 48, 51, 19, 1, 11, 5, -10,
    28, 8, 26, -9, 4, 9, 26, 105, 38, -40, -22, 22, 41, -1, -17, -13,
    13, 44, -20, 25, 31, -2, 25, 26, 44, 9, 67, 26, 66, 52, 45, 16,
};

// shape: (10, 16)
static const int8_t fc2_weight[160] = {
    5, -25, -11, 5, -18, -44, 18, -19, -15, 29, -40, 35, 35, 69, 5, -127,
    78, -30, -29, 26, 50, -50, -6, -55, -53, 63, -15, 127, -67, -82, -29, 1,
    -127, -94, -52, 20, 5, 41, 34, -57, 23, 99, 37, 125, 37, -26, -5, 13,
    1, 17, -84, 19, 3, -81, 56, -87, 75, -127, 1, 101, -86, 84, -72, 22,
    27, 103, 14, -1, -57, -57, -62, -31, -40, 49, -3, 14, -40, -127, 51, 23,
    122, -127, 41, 5, -109, 117, 38, 37, -117, -92, -73, -112, 72, 98, -87, 90,
    95, -52, -66, 30, 34, -63, 122, 25, -45, 65, -50, -127, 93, -97, -85, -120,
    -34, 1, -20, -8, 64, -39, -127, 25, -16, 6, 7, 116, 9, 21, -38, 27,
    47, -3, 3, -33, 4, 20, -17, 72, -12, 127, 60, -45, -68, 120, -8, 46,
    75, 47, -39, 98, 83, -38, -127, -74, 54, -89, -11, -13, 70, -1, 54, 112,
};

// shape: (4,)
static const int32_t conv1_bias[4] = {
    14575, 8850, 2314, 5930,
};

// shape: (8,)
static const int32_t conv2_bias[8] = {
    929, 993, -2700, -1568, 1322, -481, -1541, 978,
};

// shape: (16,)
static const int32_t fc1_bias[16] = {
    212, -527, 1321, 61, -256, -1876, 174, -1779, -134, -49, 1259, 82, 671, -157, -36, 273,
};

// shape: (10,)
static const int32_t fc2_bias[10] = {
    16, -231, -231, -633, 682, -190, -266, 354, -191, -196,
};

#endif